 0.460 -0.281 -0.773  0.204  0.142 -0.468 -0.087 -0.298 -0.658 -0.106  0.629  0.316  0.803 -0.850 -0.728 
 0.022 -0.143  0.130  0.557 -0.121  0.753  0.874  0.494  0.231  0.798  0.207  0.633  0.168  0.405  0.643 
-0.499  0.744  0.661  0.498  0.363  0.825 -0.032 -0.672 -0.450 -0.785  0.220 -0.523  0.634  0.501 -0.875 
-0.862 -0.113 -0.418  0.182 -0.850 -0.437  0.140 -0.194 -0.710  0.575 -0.067  0.777  0.256 -0.616 -0.790 
-0.388  0.203 -0.621 -0.370  0.260 -0.672 -0.129  0.466  0.675 -0.191 -0.497 -0.406  0.224 -0.499 -0.862 
-0.478  0.836 -0.293  0.123 -0.528  0.049  0.179 -0.644 -0.305  0.214  0.702 -0.604  0.842  0.422 -0.636 
 0.792  0.513  0.291 -0.299 -0.814  0.087 -0.121 -0.598 -0.607 -0.362 -0.667  0.018  0.818 -0.627 -0.766 
-0.057 -0.758 -0.777  0.548 -0.463  0.631 -0.628  0.058 -0.880  0.374  0.241  0.879  0.425 -0.685  0.669 
-0.111  0.285 -0.263  0.645 -0.474 -0.825 -0.600 -0.442  0.598 -0.435 -0.445  0.776  0.530  0.143 -0.191 
 0.138 -0.715 -0.364 -0.694  0.598 -0.353  0.349  0.086 -0.712  0.850 -0.658 -0.119  0.391 -0.481 -0.155 
 0.192 -0.253 -0.571  0.599  0.844  0.015 -0.052  0.256 -0.841 -0.049 -0.187  0.306  0.555  0.653  0.433 
-0.614 -0.802 -0.872  0.492  0.807 -0.367  0.333  0.007 -0.046 -0.159  0.025  0.539  0.441  0.797  0.084 
-0.481 -0.125  0.757  0.647 -0.141 -0.737 -0.065 -0.156  0.067 -0.557 -0.811  0.673  0.248  0.759 -0.408 
-0.423  0.037 -0.547  0.291  0.610 -0.057 -0.597  0.553  0.586 -0.051  0.004 -0.582  0.584 -0.653  0.041 
-0.495 -0.022  0.806  0.664  0.745 -0.024 -0.375 -0.031  0.323 -0.432 -0.696 -0.779 -0.133  0.660 -0.413 
-0.114 -0.534  0.021 -0.551 -0.186 -0.069  0.440 -0.016 -0.543 -0.869 -0.726  0.848 -0.119 -0.796 -0.404 
-0.575 -0.429  0.890 -0.109  0.500  0.665 -0.386  0.355 -0.294  0.530  0.607 -0.503 -0.028 -0.624 -0.284 
-0.804  0.283 -0.308  0.030  0.612  0.557  0.344  0.448  0.066  0.748  0.758  0.141  0.692 -0.666  0.011 
 0.129  0.736 -0.503  0.085 -0.059  0.209 -0.867 -0.287 -0.488 -0.548 -0.181  0.119 -0.793 -0.143  0.671 
-0.299 -0.326  0.560  0.420  0.195 -0.189 -0.686 -0.723 -0.787  0.243 -0.773 -0.273 -0.344  0.017 -0.433 
-0.120  0.158 -0.029 -0.826 -0.722 -0.737 -0.459  0.089  0.334  0.729 -0.465  0.447  0.560 -0.697 -0.680 
 0.436 -0.924 -0.675 -0.787 -0.363  0.143 -0.005 -0.179  0.841 -0.143  0.070  0.418 -0.002  0.344 -0.700 
