-0.161 -0.624 -0.095  0.354  0.774 -0.376  0.791 
 0.500 -0.652 -0.150 -0.406 -0.850  0.145  0.880 
 0.405 -0.764 -0.183  0.409  0.077 -0.710  0.058 
 0.301 -0.595  0.149 -0.126  0.046  0.711  0.282 
-0.578  0.251  0.466  0.643  0.119  0.235 -0.063 
 0.227 -0.033 -0.058 -0.568  0.502 -0.725 -0.084 
-0.739  0.271  0.464 -0.214  0.574 -0.532  0.917 
-0.126 -0.363 -0.720 -0.235  0.661 -0.616 -0.495 
 0.772  0.343  0.493 -0.713 -0.341  0.536 -0.436 
 0.126 -0.429 -0.177 -0.550  0.504 -0.868  0.646 
-0.539 -0.228  0.767 -0.217 -0.670 -0.526 -0.640 
-0.877 -0.443  0.746 -0.432 -0.191 -0.903 -0.697 
-0.906 -0.188  0.566 -0.660 -0.060  0.677  0.091 
-0.606 -0.900 -0.098 -0.171  0.014 -0.332 -0.547 
-0.547 -0.019 -0.958 -0.425  0.502 -0.506 -0.555 
 0.170 -0.358 -0.198 -0.670  0.832  0.038  0.768 
 0.159  0.115  0.668 -0.141  0.266 -0.668  0.815 
-0.067  0.485  0.604 -0.395  0.579  0.445  0.746 
-0.725 -0.198  0.468 -0.258 -0.054  0.121  0.666 
-0.486 -0.658  0.542 -0.919 -0.204 -0.198  0.492 
-0.213 -0.534 -0.564  0.723  0.368 -0.512  0.638 
-0.714  0.717 -0.107 -0.100  0.396  0.210 -0.209 
