 0.914 -0.059  0.882  0.178 -0.240  0.819 -0.291  0.730 -0.672 -0.450  0.361 -0.275 -0.395 -0.442  0.607 
 0.283 -0.205 -0.046  0.198 -0.215 -0.818  0.339 -0.097  0.436  0.758 -0.290 -0.784 -0.014 -0.082  0.745 
 0.840  0.201  0.434  0.643 -0.381  0.399  0.182  0.494  0.050  0.121  0.532  0.038 -0.608  0.510 -0.335 
 0.783 -0.427 -0.366  0.867  0.538 -0.747  0.786  0.307 -0.822  0.604 -0.726  0.475  0.789 -0.764 -0.223 
 0.944 -0.724  0.083 -0.309  0.653  0.450 -0.264 -0.719 -0.412 -0.130 -0.184 -0.054  0.797  0.438 -0.099 
-0.183  0.007 -0.497  0.230  0.842 -0.083 -0.751  0.420 -0.182  0.777 -0.483 -0.815  0.041 -0.076  0.211 
 0.133  0.119 -0.051 -0.339 -0.267  0.317 -0.221 -0.660 -0.212  0.380 -0.736 -0.083 -0.881 -0.416 -0.182 
-0.613  0.070  0.307 -0.763  0.187  0.133 -0.169 -0.651 -0.978  0.303 -0.121 -0.401 -0.645  0.764 -0.190 
-0.240  0.459 -0.193  0.203 -0.595 -0.779 -0.723  0.834  0.729 -0.884 -0.328 -0.814 -0.856  0.246 -0.750 
-0.339 -0.516  0.899 -0.667 -0.794  0.398 -0.371  0.724  0.493  0.750  0.451  0.041 -0.164 -0.154  0.047 
-0.061 -0.213 -0.790 -0.251 -0.010 -0.552 -0.243 -0.605 -0.929 -0.433  0.080  0.339  0.883  0.187 -0.841 
 0.609 -0.628 -0.218 -0.399 -0.634 -0.702  0.154 -0.130  0.168 -0.827  0.592  0.008  0.565  0.518 -0.514 
 0.701 -0.729 -0.564  0.685 -0.043 -0.416  0.768 -0.003  0.481  0.159  0.857  0.878 -0.568 -0.329  0.531 
 0.004  0.752 -0.374  0.206  0.272 -0.867  0.504 -0.282 -0.939  0.224  0.168  0.456  0.074  0.843 -0.228 
-0.329 -0.640 -0.688 -0.010  0.356  0.005 -0.831  0.136 -0.316  0.773  0.002  0.274  0.083  0.447 -0.266 
 0.098 -0.092  0.149 -0.836 -0.696  0.629  0.248 -0.328  0.076  0.394 -0.579  0.105 -0.281 -0.759 -0.452 
-0.182 -0.055 -0.393  0.314  0.251 -0.280 -0.436  0.563 -0.283 -0.214  0.523 -0.841  0.027 -0.248  0.790 
-0.374 -0.637  0.374  0.234  0.382 -0.755  0.499  0.104  0.287  0.460 -0.694 -0.075 -0.353  0.734  0.095 
-0.136  0.701 -0.838  0.497 -0.284 -0.367 -0.288  0.032  0.665 -0.247 -0.536  0.486 -0.496  0.298  0.042 
 0.794  0.047  0.817 -0.819 -0.743  0.331 -0.794 -0.707 -0.636 -0.141  0.368 -0.759 -0.509  0.268 -0.636 
 0.083 -0.237 -0.691 -0.684  0.200 -0.024  0.531  0.172 -0.507  0.412  0.454  0.856 -0.631 -0.852 -0.565 
-0.331 -0.847  0.552 -0.829 -0.352  0.513 -0.308  0.119  0.749  0.643  0.674 -0.896  0.415  0.733 -0.622 
